tree
version=v3
num_class=1
num_tree_per_iteration=1
label_index=0
max_feature_idx=29
objective=binary sigmoid:1
feature_names=Column_0 Column_1 Column_2 Column_3 Column_4 Column_5 Column_6 Column_7 Column_8 Column_9 Column_10 Column_11 Column_12 Column_13 Column_14 Column_15 Column_16 Column_17 Column_18 Column_19 Column_20 Column_21 Column_22 Column_23 Column_24 Column_25 Column_26 Column_27 Column_28 Column_29
feature_infos=[6.9809999999999999:28.109999999999999] [9.7100000000000009:33.810000000000002] [43.789999999999999:188.5] [143.5:2501] [0.052630000000000003:0.1447] [0.019380000000000001:0.31140000000000001] [0:0.42680000000000001] [0:0.20119999999999999] [0.106:0.30399999999999999] [0.049959999999999997:0.097439999999999999] [0.1115:2.8730000000000002] [0.36020000000000002:4.8849999999999998] [0.75700000000000001:21.98] [7.2279999999999998:542.20000000000005] [0.0017129999999999999:0.02333] [0.0022520000000000001:0.13539999999999999] [0:0.39600000000000002] [0:0.052789999999999997] [0.0078820000000000001:0.061460000000000001] [0.00089479999999999996:0.029839999999999998] [7.9299999999999997:36.039999999999999] [12.02:49.539999999999999] [50.409999999999997:251.19999999999999] [185.19999999999999:4254] [0.071169999999999997:0.22259999999999999] [0.027289999999999998:1.0580000000000001] [0:1.252] [0:0.2903] [0.1565:0.66379999999999995] [0.055039999999999999:0.20749999999999999]
tree_sizes=1039 1569 1691 1993 2211 2103 2201 2306 2120 2323 2205 2325 2313 2212 2220 2421 2123 2190 2329 2412 2446 2443 2527 2439 2449 2640 2550 2630 2433 2448

Tree=0
num_leaves=9
num_cat=0
split_feature=27 22 20 1 18 11 4 0
split_gain=312.096 44.7371 10.6767 1.5678 3.28732 0.19675 2.84217e-14 1.42109e-14
threshold=0.14545000000000005 107.45000000000002 16.305000000000003 21.295000000000005 0.017345000000000003 1.917 0.10705000000000002 10.810000000000002
decision_type=2 2 2 2 2 2 2 2
left_child=1 3 -2 5 -5 7 -4 -1
right_child=2 -3 6 4 -6 -7 -8 -9
leaf_value=0.72083200224910504 0.44550664387216765 0.47034802959038757 0.28817786765677494 0.61266846860102253 0.72083200224910504 0.69919929551948856 0.28817786765677489 0.72083200224910504
leaf_weight=7.858471304178237 5.0848931968212119 8.7829973399639112 18.952783733606342 4.6226301789283735 7.1650767773389816 4.6226301789283744 9.4763918668031675 38.598961994051933
leaf_count=34 22 38 82 20 31 20 41 167
internal_value=0.563935 0.681754 0.312048 0.711288 0.678415 0.718874 0.288178 0.720832
internal_weight=0 71.6508 33.5141 62.8678 11.7877 51.0801 28.4292 46.4574
internal_count=455 310 145 272 51 221 123 201
is_linear=0
shrinkage=1


Tree=1
num_leaves=14
num_cat=0
split_feature=7 22 22 21 13 21 27 0 26 1 11 0 0
split_gain=251.562 26.6438 15.1329 4.61267 1.64416 0.427964 0.0874589 0.0239253 0.00279549 0.000156191 8.4766e-05 2.84217e-14 1.42109e-14
threshold=0.051455000000000008 103.25000000000001 108.25000000000001 23.740000000000006 30.615000000000006 30.080000000000002 0.15245000000000003 14.995000000000003 0.31565000000000004 19.845000000000002 1.5615000000000003 19.635000000000002 12.865
decision_type=2 2 2 2 2 2 2 2 2 2 2 2 2
left_child=2 -2 4 -3 5 8 -5 -8 9 10 12 -9 -1
right_child=1 3 -4 6 -6 -7 7 11 -10 -11 -12 -13 -14
leaf_value=0.14863474892989734 0.029537454454126373 -0.13995650088045744 -0.030254966835001829 -0.24931320667168683 0.082161694362890725 0.12238636073642094 -0.24120763916302757 -0.23339946386863686 0.15140041473805563 0.14926382015026327 0.14909247845785753 -0.23339946386863694 0.14863474892989736
leaf_weight=22.234497711062435 4.7768682837486258 5.7975596934556952 5.6895615458488455 5.0365285873413113 4.4317692369222632 6.9351327568292609 4.8494081199169186 11.999149486422541 4.4661440551280966 5.5256837755441657 4.6376755982637397 8.5708210617303831 9.4661722928285581
leaf_count=101 21 24 24 21 20 31 20 49 20 25 21 35 43
internal_value=0 -0.19246 0.125341 -0.221712 0.140685 0.145554 -0.237274 -0.234889 0.149022 0.148768 0.148693 -0.233399 0.148635
internal_weight=0 41.0303 63.3866 36.2535 57.6971 53.2653 30.4559 25.4194 46.3302 41.864 36.3383 20.57 31.7007
internal_count=455 170 285 149 261 241 125 104 210 190 165 84 144
is_linear=0
shrinkage=0.1


Tree=2
num_leaves=15
num_cat=0
split_feature=7 22 22 21 13 21 7 20 26 14 11 20 1 11
split_gain=205.406 20.6181 13.4093 3.5875 1.5464 0.420835 0.0455331 0.00866515 0.00182093 0.000404256 0.000101481 0.00010073 8.24718e-05 1.5355e-08
threshold=0.051455000000000008 103.25000000000001 108.25000000000001 23.740000000000006 30.615000000000006 30.080000000000002 0.063990000000000019 19.125000000000004 0.31565000000000004 0.0049810000000000011 1.7415000000000003 21.590000000000003 19.595000000000002 1.3605000000000003
decision_type=2 2 2 2 2 2 2 2 2 2 2 2 2 2
left_child=2 -2 4 -3 5 8 -5 -8 10 -9 12 -11 13 -1
right_child=1 3 -4 6 -6 -7 7 9 -10 11 -12 -13 -14 -15
leaf_value=0.14191750601972206 0.026832248347104844 -0.12335096275826214 -0.027039148242820027 -0.21684176872310928 0.076243295601526928 0.11523057066219861 -0.21034594139511131 -0.20649214531697224 0.14420990831992184 -0.20508914379721499 0.14249316250051189 -0.20563064980172252 0.14238963697711934 0.14191111432311362
leaf_weight=26.848076328635219 4.7349166572093955 5.9131618440151206 5.7274671792984 5.2085286676883724 4.3049577623605719 6.6443790942430487 4.9820841252803829 4.9935028403997448 4.2319733053445807 4.9968591183423987 4.1854123175144187 10.991752564907072 4.179263934493064 4.370344102382659
leaf_count=129 21 24 24 21 20 31 20 20 20 20 20 44 20 21
internal_value=0 -0.169674 0.118548 -0.194763 0.133774 0.138682 -0.208309 -0.206597 0.142238 -0.205707 0.142028 -0.205461 0.141972 0.141917
internal_weight=0 41.8208 60.4919 37.0859 54.7644 50.4594 31.1727 25.9642 43.8151 20.9821 39.5831 15.9886 35.3977 31.2184
internal_count=455 170 285 149 261 241 125 104 210 84 190 64 170 150
is_linear=0
shrinkage=0.1


Tree=3
num_leaves=18
num_cat=0
split_feature=27 22 22 1 18 28 21 7 5 12 22 11 15 26 1 11 0
split_gain=170.95 23.8408 6.48706 1.47456 3.07289 0.225988 0.0792462 0.0182798 0.00416723 0.00156377 0.000233184 0.000102308 2.79018e-06 1.17488e-06 2.51544e-08 2.71427e-12 3.55271e-15
threshold=0.14245000000000002 107.45000000000002 113.75000000000001 21.295000000000005 0.017345000000000003 0.21585000000000001 24.555000000000003 0.044240000000000008 0.11095000000000001 2.5820000000000003 135.60000000000002 1.5465000000000002 0.027520000000000003 0.24355000000000002 18.23 1.1635000000000002 12.455000000000002
decision_type=2 2 2 2 2 2 2 2 2 2 2 2 2 2 2 2 2
left_child=1 3 -2 5 -5 -1 -4 9 -8 11 -10 13 -12 14 15 16 -7
right_child=2 -3 6 4 -6 7 8 -9 10 -11 12 -13 -14 -15 -16 -17 -18
leaf_value=0.11237962762643597 -0.082924294776543769 -0.05576794422202469 -0.20020233029127096 0.027669487855428644 0.13816830413017941 0.13637151178551662 -0.18899852950091534 0.14367311163084578 -0.18518980786634853 0.13849350179950567 -0.18590972961557589 0.1368667684782354 -0.18599948564020866 0.13631054370512641 0.13636270007292803 0.13637160569928186 0.13637151178551687
leaf_weight=3.9647593945264807 7.1827288120985022 8.2305525541305524 4.9909133464098003 4.2403986901044828 6.1912587583065033 7.0407117605209475 4.9706170260906246 4.1888287067413321 5.2163690477609661 4.2058571279048911 5.4683908820152274 4.7224678546190253 9.4461742639541608 3.908433035016059 3.9110637307167044 3.9115111827850333 7.4318624138832092
leaf_count=20 30 34 20 20 31 36 20 20 21 21 22 24 38 20 20 20 38
internal_value=0 0.102718 -0.168313 0.127001 0.0932513 0.135134 -0.188694 0.137429 -0.186406 0.136684 -0.185765 0.136438 -0.185967 0.136361 0.13637 0.136372 0.136372
internal_weight=0 61.9477 37.2752 53.7172 10.4317 43.2855 30.0925 39.3207 25.1016 35.1319 20.1309 30.926 14.9146 26.2036 22.2951 18.3841 14.4726
internal_count=455 304 151 270 51 219 121 199 101 179 81 158 60 134 114 94 74
is_linear=0
shrinkage=0.1


Tree=4
num_leaves=20
num_cat=0
split_feature=7 22 20 13 13 21 25 29 25 21 9 21 28 13 11 16 18 16 10
split_gain=145.874 17.2775 12.2671 2.83655 1.38787 0.370728 0.113789 0.122917 0.0353135 0.0299314 0.00222674 0.00105784 9.83437e-05 2.64369e-05 1.94936e-05 8.51026e-07 1.48388e-07 1.3614e-11 5.3646e-13
threshold=0.048405000000000011 104.10000000000001 16.805000000000003 29.390000000000004 32.355000000000011 30.080000000000002 0.23225000000000004 0.078895000000000007 0.29485000000000006 25.305000000000003 0.066405000000000006 26.145000000000003 0.22300000000000003 67.700000000000003 1.4465000000000001 0.023425000000000005 0.022215000000000002 0.017990000000000003 0.21480000000000002
decision_type=2 2 2 2 2 2 2 2 2 2 2 2 2 2 2 2 2 2 2
left_child=2 -2 4 -3 5 8 -5 -8 11 -9 13 12 -1 -11 15 16 17 18 -14
right_child=1 3 -4 6 -6 -7 7 9 -10 10 -12 -13 14 -15 -16 -17 -18 -19 -20
leaf_value=0.13229697526262293 0.026158733410764447 -0.092158512364937481 -0.060169702969719456 -0.18618410017777653 0.068451881988245242 0.10700847888401524 -0.15646212157749068 -0.18095065316166428 0.1420343782390785 -0.17108283143740491 -0.17381914784212985 0.13330819172322125 0.13173481433142659 -0.17139310087724013 0.13196931055295252 0.13168082516264853 0.13171222621928724 0.13173504915591214 0.13173486307025881
leaf_weight=3.874747663736346 5.580276057124137 4.9317826628684989 3.8827162981033316 5.9178289771080044 4.065618783235549 6.3387285619974127 4.8492563515901592 4.9212478846311596 3.9592757523059836 4.8570910543203372 4.877082720398902 5.7776135057210913 5.851737469434747 6.318920761346817 3.6710596978664389 4.3849131911993018 3.6559836864471427 4.2059524208307257 3.6573387533426285
leaf_count=21 26 20 16 24 20 32 20 20 20 20 20 31 32 26 20 24 20 23 20
internal_value=0 -0.13777 0.110984 -0.162714 0.124425 0.12944 -0.173677 -0.170811 0.133082 -0.174128 -0.172036 0.132072 0.131828 -0.171258 0.131756 0.13172 0.13173 0.131735 0.131735
internal_weight=0 42.2535 53.3257 36.6732 49.443 45.3774 31.7414 25.8236 39.0386 20.9743 16.0531 35.0793 29.3017 11.176 25.427 21.7559 17.371 13.715 9.50908
internal_count=455 176 279 150 263 243 130 106 211 86 66 191 160 46 139 119 95 75 52
is_linear=0
shrinkage=0.1


Tree=5
num_leaves=19
num_cat=0
split_feature=27 23 1 27 21 2 7 9 1 6 13 27 11 18 25 17 21 27
split_gain=123.948 27.6887 4.89601 7.73801 3.185 0.612325 0.787996 0.542134 0.38041 0.0105594 0.00262053 0.00010977 8.10265e-05 7.81494e-05 8.34997e-06 4.8359e-06 2.44509e-07 6.46579e-09
threshold=0.14545000000000005 953.70000000000016 21.295000000000005 0.091065000000000021 23.740000000000006 92.290000000000006 0.034605000000000004 0.067725000000000021 19.595000000000002 0.11970000000000001 26.440000000000001 0.18440000000000004 1.7415000000000003 0.014250000000000001 0.23490000000000003 0.0093795000000000007 24.430000000000003 0.055595000000000006
decision_type=2 2 2 2 2 2 2 2 2 2 2 2 2 2 2 2 2 2
left_child=1 2 5 -4 -2 6 10 8 -6 -10 12 -11 13 -1 15 16 17 -15
right_child=4 -3 3 -5 7 -7 -8 -9 9 11 -12 -13 -14 14 -16 -17 -18 -19
leaf_value=0.12826320517539019 -0.078020585140038956 -0.156840615696867 0.11743562599166497 -0.055352568603652078 -0.12956033611088946 0.15779439889584504 0.089491513480842277 -0.18788586201996232 -0.16565107379199046 -0.15977570096471513 0.13084245039259418 -0.16037308505429079 0.12841498257786674 0.12781262373306626 0.127662589102954 0.12794085921397591 0.1277846962788384 0.1278182541223086
leaf_weight=4.6331600099802115 5.307975396513938 4.1720762699842444 6.7614230066537839 4.2028306871652603 4.6703735888004365 5.3627582192420951 6.3197154253721228 6.4323511123657218 4.7506152689456966 4.9169632196426383 3.581059291958808 8.2150952219963056 3.4452192783355704 3.915815934538843 3.3945697396993628 3.4137335568666449 3.7434356063604346 4.2568087428808212
leaf_count=27 22 17 37 20 20 25 34 27 20 21 20 35 20 23 20 20 22 25
internal_value=0 0.0912041 0.110719 0.0512023 -0.149236 0.126231 0.121619 -0.162278 -0.154974 -0.161611 0.128302 -0.160149 0.127962 0.127895 0.127804 0.127836 0.127806 0.127816
internal_weight=0 57.2026 53.0305 10.9643 34.2934 42.0663 36.7035 28.9854 22.553 17.8827 30.3838 13.1321 26.8027 23.3575 18.7244 15.3298 11.9161 8.17262
internal_count=455 310 293 57 145 236 211 123 96 76 177 56 157 137 110 90 70 48
is_linear=0
shrinkage=0.1


Tree=6
num_leaves=20
num_cat=0
split_feature=7 23 20 21 13 21 2 11 27 21 29 21 7 27 28 22 11 8 4
split_gain=107.053 13.8966 9.79975 4.97856 1.59418 0.359714 0.208535 0.0576032 0.03651 0.0222227 0.00353778 0.000524991 0.000122859 0.000110779 3.36549e-05 1.4084e-05 8.38018e-06 1.18003e-06 1.61716e-07
threshold=0.048405000000000011 710.10000000000014 16.805000000000003 22.340000000000003 32.850000000000009 30.080000000000002 94.680000000000021 1.5615000000000003 0.10695 25.305000000000003 0.079930000000000015 26.145000000000003 0.029425000000000003 0.18605000000000002 0.22700000000000004 94.810000000000016 1.3340000000000003 0.18295000000000003 0.086695000000000008
decision_type=2 2 2 2 2 2 2 2 2 2 2 2 2 2 2 2 2 2 2
left_child=2 -2 4 -3 5 8 -5 9 11 -8 -11 12 14 -12 -1 16 17 18 -16
right_child=1 3 -4 6 -6 -7 7 -9 -10 10 13 -13 -14 -15 15 -17 -18 -19 -20
leaf_value=0.12479758606131033 0.046470836360399725 -0.044357052359781601 -0.048835956383286069 -0.1745553302319981 0.052215791230449227 0.099076268728395367 -0.1600317598617044 -0.14138652841243157 0.13547098828730647 -0.15461080983268116 -0.15095064370901687 0.12573512442770976 0.12509111181787677 -0.1515741538747539 0.12449826067875354 0.12427191835591496 0.12464448258181451 0.12440838866748338 0.12446905651150497
leaf_weight=3.502451956272135 4.4679530858993521 4.6577071994543067 3.9183522611856452 4.7567701786756542 3.5665695220232001 5.8475051969289771 4.6551880687475267 4.4239992946386328 3.5824000537395468 4.5495512485504177 4.4715519845485669 5.0151509791612616 4.4847617894411078 7.8553576022386551 3.1610928475856799 3.3001536875963202 3.1723437011241904 3.1540086269378662 4.7382197231054306
leaf_count=22 21 20 16 20 19 32 20 20 20 20 20 31 28 35 20 21 20 20 30
internal_value=0 -0.119705 0.102638 -0.140697 0.116274 0.121992 -0.155307 -0.151779 0.125921 -0.153915 -0.152228 0.1248 0.124616 -0.151348 0.124515 0.124458 0.124501 0.12446 0.124481
internal_weight=0 39.8381 47.443 35.3701 43.5247 39.9581 30.7124 25.9556 34.1106 21.5316 16.8765 30.5282 25.513 12.3269 21.0283 17.5258 14.2257 11.0533 7.89931
internal_count=455 176 279 155 263 244 135 115 212 95 75 192 161 55 133 111 90 70 50
is_linear=0
shrinkage=0.1


Tree=7
num_leaves=21
num_cat=0
split_feature=27 23 1 23 20 25 22 28 21 7 10 12 5 21 11 6 7 18 1 6
split_gain=91.9933 21.0701 4.60655 7.06494 3.26531 0.808136 0.481723 0.275503 0.0540527 0.0244939 0.00369405 0.00165819 0.000163058 9.15979e-05 4.92787e-05 1.27682e-05 3.26061e-06 7.29211e-07 7.12106e-08 3.88281e-09
threshold=0.14545000000000005 953.70000000000016 21.295000000000005 653.45000000000016 16.305000000000003 0.30280000000000001 104.95 0.21585000000000001 24.555000000000003 0.041060000000000006 0.39730000000000004 2.5820000000000003 0.17665000000000003 30.615000000000006 1.5465000000000002 0.044620000000000014 0.024570000000000005 0.014995000000000001 17.630000000000006 0.020210000000000002
decision_type=2 2 2 2 2 2 2 2 2 2 2 2 2 2 2 2 2 2 2 2
left_child=1 2 5 -4 -2 6 7 -1 -6 11 -10 14 13 -12 15 16 17 -9 19 -19
right_child=4 -3 3 -5 8 -7 -8 9 10 -11 12 -13 -14 -15 -16 -17 -18 18 -20 -21
leaf_value=0.091573630070245979 -0.060220968391652398 -0.13386776520846536 0.11106966662555265 -0.05961632116025134 -0.15665994754087323 0.068908340543167607 0.16027316766329519 0.12155044538012189 -0.14733573583578233 0.13129992280871269 -0.14449348067887255 0.12414693765767587 -0.14353224112377844 -0.14396983082511969 0.12204089802510465 0.12178100104685191 0.12147429716641607 0.12161091799183006 0.12159437471547428 0.1216160725617266
leaf_weight=3.0890929698944118 5.2151260823011425 4.0786075592041007 6.1102889925241453 4.0207158029079437 4.5802489519119289 2.9141809195280066 3.2692206501960746 3.0630195289850368 4.3238815069198635 3.191988229751586 7.0316759347915667 3.1015723049640647 4.2254531979560843 6.3634173423051834 3.1053530126810065 3.5240751951932898 2.9103664159774771 2.9225230664014799 2.9210774749517441 2.9229731112718582
leaf_count=20 22 17 37 20 20 17 15 21 20 18 33 20 20 30 21 24 20 20 20 20
internal_value=0 0.0841696 0.103064 0.0433291 -0.132557 0.119449 0.123778 0.119898 -0.146779 0.123061 -0.144717 0.121986 -0.144074 -0.144245 0.121673 0.12161 0.121569 0.121592 0.121607 0.121613
internal_weight=0 51.1451 47.0664 10.131 31.7398 36.9354 34.0213 30.752 26.5247 27.6629 21.9444 24.471 17.6205 13.3951 21.3694 18.264 14.74 11.8296 8.76657 5.8455
internal_count=455 310 293 57 145 236 219 204 123 184 103 166 83 63 146 125 101 81 60 40
is_linear=0
shrinkage=0.1


Tree=8
num_leaves=19
num_cat=0
split_feature=7 21 13 1 26 28 22 28 20 27 12 13 15 28 11 6 19 14
split_gain=80.6649 11.2536 8.38441 2.35767 3.62947 0.833812 0.400394 0.226457 0.251144 0.0065538 0.00337641 0.00032712 0.000217014 6.43426e-05 1.90977e-05 1.10046e-05 2.23402e-06 6.53017e-07
threshold=0.048405000000000011 23.740000000000006 38.085000000000008 21.575000000000003 0.18005000000000002 0.26925000000000004 112.30000000000001 0.33155000000000007 16.240000000000006 0.16135000000000002 2.6385000000000001 24.485000000000003 0.030695000000000004 0.22940000000000002 1.4630000000000003 0.044620000000000014 0.0018970000000000002 0.0071845000000000008
decision_type=2 2 2 2 2 2 2 2 2 2 2 2 2 2 2 2 2 2
left_child=2 -2 3 7 -5 -3 -7 8 10 -8 11 13 -11 -1 15 16 -15 -18
right_child=1 5 -4 4 -6 6 9 -9 -10 12 -12 -13 -14 14 -16 -17 17 -19
leaf_value=0.11972604899650573 -0.0058701034647542791 -0.10062182479732523 -0.063557536781109356 0.12494825030748452 -0.013819203296744546 -0.17217164216797667 -0.14272235137530484 0.09265557814815821 0.15038760148243141 -0.13857851368467025 0.12312828357591886 0.12039851621206442 -0.13780064413842147 0.11903766789517561 0.11942697567009564 0.11933133015438194 0.11912025968258269 0.11918131496914718
leaf_weight=2.8882875591516664 8.3963349610567075 4.9675657749176052 3.0602225363254538 3.918064057826995 3.6320103108882904 4.6032057255506542 4.1525603532791164 2.6815702468156806 3.0067783296108237 7.6323882788419706 2.7826344817876807 3.0751193314790717 6.7658433169126511 2.8211808353662509 3.4040780067443839 2.9858277440071097 4.9856512546539307 2.7006974667310715
leaf_count=21 39 25 15 25 19 20 20 18 15 38 19 22 34 21 25 22 37 20
internal_value=0 -0.107464 0.0958131 0.108356 0.0581933 -0.137797 -0.145773 0.120444 0.123045 -0.139222 0.119839 0.119439 -0.138213 0.11929 0.119215 0.119162 0.119114 0.119142
internal_weight=0 36.5179 41.9421 38.8819 7.55007 28.1216 23.154 31.3318 28.6503 18.5508 25.6435 22.8608 14.3982 19.7857 16.8974 13.4934 10.5075 7.68635
internal_count=455 176 279 264 44 137 112 220 202 92 187 168 72 146 125 100 78 57
is_linear=0
shrinkage=0.1


Tree=9
num_leaves=21
num_cat=0
split_feature=27 13 21 7 13 17 27 26 7 13 1 21 6 11 1 22 28 8 9 21
split_gain=70.0385 15.5434 12.0519 7.89591 5.36871 0.404748 0.291959 0.288905 0.745816 0.0349333 0.0184486 0.00690883 0.000748666 0.00037636 8.05342e-05 5.78672e-05 1.81965e-05 7.45144e-06 2.48305e-06 1.29822e-07
threshold=0.11085000000000002 31.125000000000004 25.820000000000004 0.053855000000000007 43.510000000000012 0.020110000000000003 0.15095000000000003 0.21370000000000003 0.027185000000000004 30.240000000000006 19.075000000000003 29.795000000000005 0.046215000000000013 1.3605000000000003 19.525000000000002 160.10000000000002 0.23430000000000004 0.18295000000000003 0.058890000000000005 21.140000000000004
decision_type=2 2 2 2 2 2 2 2 2 2 2 2 2 2 2 2 2 2 2 2
left_child=4 2 -2 -4 7 6 -3 9 -9 11 -8 12 14 15 16 -12 -1 18 -18 -20
right_child=1 5 3 -5 -6 -7 10 8 -10 -11 13 -13 -14 -15 -16 -17 17 -19 19 -21
leaf_value=0.11728802751156507 0.12011767213588394 -0.16387446673394554 0.029797379221993464 -0.16552242188309435 -0.034587133360693384 -0.1077758161551067 -0.14133134820155721 0.057911791674442506 0.12418402006234529 0.12951798980819709 -0.13298284208789865 0.12256630748744468 0.1189161346948545 -0.13438770882995582 0.11765394682333899 -0.13349585954277426 0.11685047684397674 0.11709828727802184 0.11698802349491866 0.11695645210753258
leaf_weight=2.5118883997202053 4.9799746796488753 4.5853572338819566 3.804271996021269 4.5393239557743073 2.6082791686058036 4.2671873271465293 4.0580912530422237 2.9195471405982962 4.0589761435985565 3.0140052735805503 4.4753180742263776 2.9567447751760474 2.7405700534582129 4.1762157827615729 2.5411611497402182 4.3221893459558487 2.4677154943346959 4.2389440163969994 2.6066296026110649 2.6031703054904938
leaf_count=20 25 21 20 21 13 21 20 21 28 19 24 20 21 22 20 23 20 34 21 21
internal_value=0 -0.0907481 -0.00298866 -0.0764661 0.103475 -0.135921 -0.141477 0.114501 0.0964583 0.119404 -0.135447 0.118059 0.117383 -0.133606 0.117135 -0.133235 0.117043 0.116992 0.116933 0.116972
internal_weight=0 39.2079 13.3236 8.3436 35.2676 25.8844 21.6172 32.6594 6.97852 25.6808 17.0318 22.6668 19.7101 12.9737 16.9695 8.79751 14.4283 11.9165 7.67752 5.2098
internal_count=455 197 66 41 258 131 110 245 49 196 89 177 157 69 136 47 116 96 62 42
is_linear=0
shrinkage=0.1


Tree=10
num_leaves=20
num_cat=0
split_feature=22 27 23 1 21 25 29 7 27 21 27 13 1 26 0 11 28 8 21
split_gain=61.3615 14.0655 7.04795 6.32271 1.60882 1.09415 0.821769 0.189915 0.0684805 0.0202753 0.0168525 0.00491856 0.000962723 8.99345e-05 8.78368e-05 5.75851e-05 1.15466e-05 3.6991e-06 3.03017e-06
threshold=114.45 0.16030000000000003 765.45000000000016 18.985000000000003 33.160000000000004 0.081070000000000017 0.071465000000000015 0.052555000000000004 0.15780000000000002 25.305000000000003 0.11020000000000001 27.445000000000004 20.665000000000003 0.22655000000000003 17.015000000000004 1.2150000000000001 0.23495000000000002 0.17155000000000001 21.975000000000005
decision_type=2 2 2 2 2 2 2 2 2 2 2 2 2 2 2 2 2 2 2
left_child=1 2 4 -4 5 -1 -2 10 -8 -10 11 12 13 16 -11 -16 -7 -18 -19
right_child=6 -3 3 -5 -6 7 8 -9 9 14 -12 -13 -14 -15 15 -17 17 18 -20
leaf_value=0.060282927902062688 -0.084749603928186368 -0.12148574105130916 0.097343472253891963 -0.078138172119893989 0.036015384323276105 0.11540797013626808 -0.14587544061486765 0.1443317876659822 -0.13753805019890325 -0.12887190965122319 0.12429242480219063 0.11999797914102184 0.11743454094856279 0.11580812441913046 -0.12923984564592036 -0.12975857586123438 0.11509021208008691 0.11528598321845088 0.11514676206702834
leaf_weight=3.4504899755120304 4.0569991022348431 3.5337924212217322 3.8372997716069204 4.4162826836109161 2.9493024647235861 2.311892271041887 3.9252505749464062 2.8810837715864173 3.8659206032753017 3.8230732232332221 2.9330552890896788 2.956549495458602 2.4897805824875823 3.0615328699350348 5.4260108917951566 3.5338477492332458 4.3291136771440488 2.8747991025447845 3.4270000010728836
leaf_count=28 20 16 21 22 19 20 20 15 20 22 20 22 20 26 31 20 38 25 30
internal_value=0 0.0701083 0.0862601 0.00344769 0.106563 0.113337 -0.125883 0.120052 -0.133994 -0.131192 0.117183 0.116211 0.115605 0.115321 -0.129273 -0.129444 0.115205 0.115161 0.11521
internal_weight=0 45.452 41.9182 8.25358 33.6646 30.7153 24.6311 27.2648 20.5741 16.6489 24.3837 21.4507 18.4941 16.0043 12.7829 8.95986 12.9428 10.6309 6.3018
internal_count=455 322 306 43 263 244 133 216 113 93 201 181 159 139 73 51 113 93 55
is_linear=0
shrinkage=0.1


Tree=11
num_leaves=21
num_cat=0
split_feature=27 13 21 7 0 17 15 17 27 7 1 1 10 21 26 11 22 19 26 18
split_gain=54.068 12.3636 9.26507 6.21251 4.80911 0.397616 0.347648 1.31458 0.190581 0.0235928 0.00993117 0.00941769 0.00176702 0.000379342 0.000342885 0.000279899 5.53079e-05 4.721e-05 1.38277e-05 5.67241e-06
threshold=0.11085000000000002 31.125000000000004 25.820000000000004 0.053855000000000007 14.955000000000002 0.020110000000000003 0.012025000000000003 0.0088485000000000005 0.15095000000000003 0.042710000000000005 22.535000000000004 19.075000000000003 0.36710000000000004 26.145000000000003 0.024655000000000003 1.3605000000000003 160.10000000000002 0.0034195000000000002 0.18995000000000004 0.018820000000000003
decision_type=2 2 2 2 2 2 2 2 2 2 2 2 2 2 2 2 2 2 2 2
left_child=4 2 -2 -4 6 8 7 14 -3 10 12 -10 13 17 -1 16 -13 19 -19 -8
right_child=1 5 3 -5 -6 -7 9 -9 11 -11 -12 15 -14 -15 -16 -17 -18 18 -20 -21
leaf_value=0.11529176397961438 0.10947493425086828 -0.15146491040738344 0.026167091331079202 -0.15286028318234357 -0.043711483557766107 -0.097443595294154778 0.113430891163668 0.024746647238474685 -0.13181072517151265 0.12580117141068733 0.12129655632893743 -0.12531086851030959 0.11707036540053084 0.11510518511588624 0.11385049540035104 -0.12664239320537496 -0.12584976793922456 0.11379469044348045 0.11414478295399684 0.1136476518829686
leaf_weight=2.7371243089437538 4.6168769747018796 4.2025161832571092 3.6344785913825035 4.153434619307518 2.211742401123046 3.8536696135997763 2.8176982253789955 2.1426126137375832 3.5773510485887519 2.583820477128028 2.54341185837984 3.8675162494182569 2.2753960564732543 2.5835126265883437 4.1585204154253006 3.638119176030159 3.7520704418420792 2.2353266328573227 2.2778512611985207 2.1123297810554504
leaf_count=24 25 21 20 21 11 21 27 18 20 17 18 24 19 23 39 22 23 21 21 20
internal_value=0 -0.0831686 -0.00276983 -0.0693114 0.0983307 -0.126737 0.109366 0.093164 -0.132666 0.116904 0.115539 -0.127341 0.114515 0.114031 0.114423 -0.125921 -0.125576 0.113738 0.113971 0.113524
internal_weight=0 35.296 12.4048 7.78791 30.6793 22.8912 28.4676 9.03826 19.0376 19.4293 16.8455 14.8351 14.3021 12.0267 6.89564 11.2577 7.61959 9.44321 4.51318 4.93003
internal_count=455 197 66 41 258 131 247 81 110 166 149 89 131 112 63 69 47 89 42 47
is_linear=0
shrinkage=0.1


Tree=12
num_leaves=21
num_cat=0
split_feature=27 23 21 13 0 20 26 7 4 6 1 1 13 0 1 25 7 17 5 15
split_gain=47.1974 11.2573 7.24225 4.74525 0.477831 0.618298 0.362706 0.768311 0.0364786 0.0272056 0.00470051 0.00392675 0.000563481 0.000130751 0.000101603 6.50705e-05 6.20604e-05 2.69729e-05 4.12896e-06 5.04577e-07
threshold=0.11085000000000002 710.10000000000014 21.385000000000002 43.510000000000012 14.15 17.795000000000005 0.21370000000000003 0.027185000000000004 0.091115000000000015 0.058045000000000006 23.160000000000004 19.325000000000003 26.705000000000002 20.110000000000003 19.845000000000002 0.096370000000000011 0.088450000000000015 0.0088485000000000005 0.059745000000000006 0.014475000000000002
decision_type=2 2 2 2 2 2 2 2 2 2 2 2 2 2 2 2 2 2 2 2
left_child=3 -2 -3 6 -4 -6 9 -8 -7 10 12 -10 14 16 15 -1 -13 18 -17 -20
right_child=1 2 4 -5 5 8 7 -9 11 -11 -12 13 -14 -15 -16 17 -18 -19 19 -21
leaf_value=0.1127589998028395 0.06002913567844631 0.022344773066670355 -0.15580009351925939 -0.037149976193815624 -0.081202223276360896 -0.13519087799232973 0.043793776426428142 0.11794729755792277 -0.12666862116714958 0.12528374868873232 0.11771886736823423 -0.12210937459251721 0.11413643390259526 -0.12315061379237933 0.11311492798478982 0.11221514810738593 -0.1227320651954573 0.11247969185816067 0.11200346243256612 0.1120735995804903
leaf_weight=2.9076035171747376 4.92709857225418 3.928425386548045 3.9433258920908001 2.4550483822822562 3.7700975388288525 3.444912955164912 2.4557287842035285 3.2416844889521599 3.2539848387241355 2.1097003966569892 2.1167891174554816 3.4083272665739042 2.3532034009695044 3.6598135977983475 2.0306153371930113 2.0343291312456113 3.0176341384649277 2.6584240198135376 1.9136174917221067 2.2106776088476181
leaf_count=29 29 20 20 13 21 20 21 28 20 17 17 23 22 24 20 21 20 27 20 23
internal_value=0 -0.0795151 -0.103702 0.0957516 -0.123914 -0.117797 0.108285 0.0859853 -0.126017 0.114533 0.113289 -0.123648 0.112706 -0.122674 0.112462 0.112349 -0.122402 0.112213 0.112099 0.112041
internal_weight=0 33.3536 28.4265 28.4874 24.4981 20.5548 26.0324 5.69741 16.7847 20.335 18.2253 13.3398 16.1085 10.0858 13.7553 11.7247 6.42596 8.81705 6.15862 4.1243
internal_count=455 197 168 258 148 128 245 49 107 196 179 87 162 67 140 120 43 91 64 43
is_linear=0
shrinkage=0.1


Tree=13
num_leaves=20
num_cat=0
split_feature=22 27 21 13 29 21 27 21 0 13 6 1 17 26 25 25 15 21 5
split_gain=41.693 10.1165 7.50225 2.12515 0.878643 0.333907 0.0388469 0.0131633 0.00899111 0.00146518 0.000448244 0.000134535 8.49825e-05 6.83687e-05 5.93174e-05 1.69991e-05 1.61847e-05 1.86191e-06 8.43376e-07
threshold=114.45 0.11085000000000002 27.330000000000002 38.960000000000001 0.071465000000000015 33.160000000000004 0.15780000000000002 25.305000000000003 14.265000000000002 29.935000000000006 0.069225000000000023 20.845000000000002 0.017140000000000006 0.20795000000000002 0.096370000000000011 0.38915000000000005 0.011755000000000002 21.140000000000004 0.07691000000000002
decision_type=2 2 2 2 2 2 2 2 2 2 2 2 2 2 2 2 2 2 2
left_child=1 3 -3 5 -2 8 -6 -8 9 10 11 13 15 14 -1 -9 -16 -18 -19
right_child=4 2 -4 -5 6 -7 7 12 -10 -11 -12 -13 -14 -15 16 -17 17 18 -20
leaf_value=0.11139896323001358 -0.069693652724972521 0.060287549377453446 -0.09343335655946311 0.0002480120630947081 -0.13405938178039567 0.070437132337141731 -0.12745375776086929 -0.12007866773912462 0.1190354597731183 0.11427226943595814 0.11283899105542122 0.111982778965784 -0.12057823407632878 0.11164583812076159 0.11108322258448214 -0.1197692240625547 0.11085378514648508 0.11078227857569399 0.11068994244110218
leaf_weight=2.7532690092921426 3.5831509381532696 7.0251164808869344 5.7928320020437241 1.9676987603306759 3.2637242078781155 2.0955494269728652 3.2318961769342414 4.0372870415449125 1.8093800321221341 1.9338634833693493 1.8540083169937123 1.8938117325305928 2.9704345613718033 1.8609222471714009 2.5110623165965062 3.1685147732496262 2.3840108513832092 2.2840340808033943 1.7448620498180387
leaf_count=30 20 39 31 12 20 17 20 29 15 18 19 20 21 20 28 23 27 26 20
internal_value=0 0.0630929 -0.00918374 0.100014 -0.11462 0.108503 -0.124275 -0.121894 0.112296 0.111662 0.11137 0.111193 -0.120128 0.111083 0.110993 -0.119943 0.110868 0.110784 0.110742
internal_weight=0 37.9104 12.8179 25.0925 20.255 23.1248 16.6719 13.4081 21.0292 19.2198 17.286 15.432 10.1762 13.5382 11.6772 7.2058 8.92397 6.41291 4.0289
internal_count=455 322 70 252 133 240 113 93 223 208 190 171 73 151 131 52 101 73 46
is_linear=0
shrinkage=0.1


Tree=14
num_leaves=20
num_cat=0
split_feature=7 23 13 1 23 15 22 21 25 26 21 13 26 16 25 18 27 21 25
split_gain=37.2597 6.576 5.98374 2.29868 4.24306 0.858878 0.16787 0.165487 0.00594559 0.003707 0.0028943 0.000199601 0.000146461 0.000105579 3.21797e-05 2.45397e-05 1.88077e-05 6.18208e-06 2.00544e-06
threshold=0.050100000000000006 787.95000000000016 38.085000000000008 20.185000000000006 653.45000000000016 0.018270000000000005 108.25000000000001 24.195000000000004 0.27920000000000006 0.34405000000000002 30.400000000000002 27.210000000000004 0.22655000000000003 0.047835000000000009 0.096370000000000011 0.017575000000000004 0.084300000000000014 18.295000000000005 0.14305000000000004
decision_type=2 2 2 2 2 2 2 2 2 2 2 2 2 2 2 2 2 2 2
left_child=2 -2 3 6 10 -3 8 -7 11 -9 -5 12 14 15 -1 -11 17 -16 -19
right_child=1 5 -4 4 -6 7 -8 9 -10 13 -12 -13 -14 -15 16 -17 -18 18 -20
leaf_value=0.11019761306883345 0.0032962446840228291 -0.06926925302472775 -0.055864032515542464 0.11123067876430559 -0.034322003993040272 -0.14309898862860421 0.14350510926043999 -0.12195506725017842 0.11627045388114039 -0.11784124096804903 0.11637100941695229 0.1111508690658688 0.11085236436036035 -0.11837283716197403 0.10985890606560374 -0.1174403330798922 0.11003993009079341 0.10971895558364342 0.10958323274239304
leaf_weight=2.5170491337776317 6.2288070842623737 3.4341461211442974 2.9505099281668654 2.0266249775886527 3.4269339591264725 3.6428697109222439 1.7380083352327336 2.9772047773003569 1.785473771393298 3.5967002660036069 2.3837753683328629 1.778172194957732 1.8170817717909802 3.2630449384450912 1.7952055931091289 2.652983769774437 2.2329785227775574 1.8560309782624242 2.6333063989877701
leaf_count=30 34 23 16 23 20 21 9 21 17 28 21 20 21 25 22 21 27 23 33
internal_value=0 -0.086192 0.0790908 0.0944112 0.0491501 -0.114679 0.113952 -0.124345 0.110823 -0.118876 0.114009 0.110158 0.11002 -0.117912 0.109883 -0.117671 0.109791 0.109702 0.109639
internal_weight=0 25.7958 28.9412 25.9906 7.83733 19.5669 18.1533 16.1328 16.4153 12.4899 4.4104 14.6298 12.8517 9.51273 11.0346 6.24968 8.51752 6.28454 4.48934
internal_count=455 173 282 266 64 139 202 116 193 95 44 176 156 74 135 49 105 78 56
is_linear=0
shrinkage=0.1


Tree=15
num_leaves=22
num_cat=0
split_feature=27 23 1 4 20 25 11 22 21 7 28 13 27 19 15 26 26 15 20 22 21
split_gain=32.4863 8.55779 3.28848 4.00183 2.57595 1.11681 0.565134 0.135308 0.0148461 0.0146593 0.00253433 0.00120064 0.000241289 4.12526e-05 4.10897e-05 2.3275e-05 1.29339e-05 1.88609e-05 8.97805e-06 5.14915e-06 8.74709e-07
threshold=0.14545000000000005 953.70000000000016 21.295000000000005 0.090515000000000026 16.305000000000003 0.31425000000000008 1.9460000000000004 104.95 24.760000000000002 0.044930000000000005 0.2738000000000001 28.355000000000004 0.10110000000000001 0.0027395000000000002 0.037140000000000013 0.46765000000000007 0.20960000000000004 0.012485000000000001 13.345000000000001 90.695000000000007 21.415000000000003
decision_type=2 2 2 2 2 2 2 2 2 2 2 2 2 2 2 2 2 2 2 2 2
left_child=1 2 5 -4 -2 6 7 9 -6 11 -10 12 16 -12 15 -15 17 18 -1 20 -19
right_child=4 -3 3 -5 8 -7 -8 -9 10 -11 13 -13 -14 14 -16 -17 -18 19 -20 -21 -22
leaf_value=0.10911517332622817 -0.032437041079080388 -0.089207175253963239 0.088590597197252929 -0.061245720467896808 -0.12425854368042083 0.025447424291172173 0.051535341752143742 0.13559979560568 -0.11930501757713929 0.11947625694362707 -0.11618848578236923 0.11197033682629465 0.11025241507880899 -0.11531060901469861 -0.11604813729033703 -0.11575275281726893 0.10914911180454773 0.10869312819719264 0.10881440895039224 0.10885972860317983 0.10858945057502345
leaf_weight=2.5216256976127784 4.5347192883491543 3.2570380568504325 4.1316078528761855 3.1349982544779778 3.1843042299151412 1.7490329146385182 1.5773514881730069 2.4919603988528243 2.6887430474162093 1.6142079308629025 2.3948767632246 1.6013799309730519 1.4775646552443493 2.2995252162218094 2.381893701851368 2.4688574597239494 1.6075385212898243 1.4712247326970103 1.6366877928376196 1.4920217767357824 1.8209453001618383
leaf_count=33 22 17 35 22 21 14 17 15 21 13 20 18 18 20 20 21 21 20 22 20 25
internal_value=0 0.0643028 0.0819527 0.0239474 -0.0986902 0.101966 0.108895 0.113997 -0.118176 0.110465 -0.116593 0.109398 0.109056 -0.115829 -0.115709 -0.11554 0.108888 0.108841 0.108997 0.108706 0.108636
internal_weight=0 31.5852 28.3281 7.26661 19.9529 21.0615 19.3125 17.7352 15.4182 15.2432 12.2339 13.629 12.0276 9.54515 7.15028 4.76838 10.55 8.94251 4.15831 4.78419 3.29217
internal_count=455 310 293 57 145 236 222 205 123 190 102 177 159 81 61 41 141 120 55 65 45
is_linear=0
shrinkage=0.1


Tree=16
num_leaves=19
num_cat=0
split_feature=7 21 13 1 20 26 28 22 22 6 12 19 24 11 15 17 1 27
split_gain=28.8367 6.65715 5.08888 2.21071 3.32193 0.458606 0.291966 0.253913 0.137812 0.00236617 0.000112725 3.89769e-05 3.38339e-05 1.42532e-05 1.41979e-05 1.04847e-05 8.86722e-06 4.31707e-06
threshold=0.050100000000000006 23.740000000000006 38.085000000000008 21.575000000000003 14.445000000000002 0.34405000000000002 0.33225000000000005 117.80000000000003 108.85000000000001 0.067315000000000014 2.5620000000000007 0.0035385000000000004 0.15465000000000004 1.4720000000000002 0.025860000000000005 0.0088485000000000005 17.675000000000004 0.054360000000000006
decision_type=2 2 2 2 2 2 2 2 2 2 2 2 2 2 2 2 2 2
left_child=2 -2 3 6 -5 -3 8 -7 9 10 11 13 14 15 -9 16 17 -1
right_child=1 5 -4 4 -6 7 -8 12 -10 -11 -12 -13 -14 -15 -16 -17 -18 -19
leaf_value=0.10793174032309372 0.0069536053107267142 -0.085330998190888796 -0.051281549598904325 0.11343494932631411 -0.043142513641973149 -0.14593299341471541 0.066265045024632083 -0.11445518375171693 0.13944610572835775 0.11181263333704938 0.10899181908548608 0.10848437186939182 -0.11380552442886634 0.1082883082420185 -0.11414218891776523 0.10816834842596681 0.10808075614141016 0.10770861277354214
leaf_weight=1.3606627732515426 6.3567926660180119 4.3137899935245541 2.8576312437653533 2.6932029426097861 2.7269085794687271 3.5164609700441352 1.5338235571980465 2.2045212537050229 1.6360869407653797 2.1700491756200782 1.6352779120206822 2.0759178325533858 2.3420481830835342 1.4079265892505644 4.2302955910563469 1.5322497040033338 1.4496898725628851 2.3906450048089027
leaf_count=20 38 34 16 28 16 20 17 20 9 26 22 29 22 20 39 22 21 36
internal_value=0 -0.0800725 0.0744565 0.0903466 0.0346594 -0.113384 0.107903 -0.123228 0.111981 0.108777 0.108221 0.108098 -0.114131 0.107999 -0.114249 0.107938 0.107871 0.10779
internal_weight=0 22.9639 25.4701 22.6124 5.42011 16.6071 17.1923 12.2933 15.6585 14.0224 11.8524 10.2171 8.77687 8.14117 6.43482 6.73325 5.201 3.75131
internal_count=455 173 282 266 44 135 222 101 205 196 170 148 81 119 59 99 77 56
is_linear=0
shrinkage=0.1


Tree=17
num_leaves=20
num_cat=0
split_feature=23 27 21 13 20 1 27 7 27 25 1 6 13 26 25 1 20 5 8
split_gain=26.0288 10.4645 4.19247 2.2454 1.14425 0.524951 0.136006 0.0954303 0.0181188 0.00115444 0.000614323 0.000701621 5.6475e-05 2.50823e-05 2.1122e-05 9.08428e-06 7.46394e-06 3.20247e-06 1.99475e-06
threshold=953.70000000000016 0.16030000000000003 32.835000000000008 34.905000000000008 15.870000000000003 18.635000000000002 0.13270000000000001 0.066105000000000011 0.11020000000000001 0.29485000000000006 21.495000000000005 0.068410000000000012 26.440000000000001 0.20960000000000004 0.115 24.505000000000003 12.660000000000002 0.087310000000000013 0.1731
decision_type=2 2 2 2 2 2 2 2 2 2 2 2 2 2 2 2 2 2 2
left_child=1 2 3 4 6 -2 8 -7 10 -9 11 12 13 14 16 -11 -1 18 -16
right_child=5 -3 -4 -5 -6 7 -8 9 -10 15 -12 -13 -14 -15 17 -17 -18 -19 -20
leaf_value=0.10754073529429882 -0.075002051219799526 -0.10268421896847078 -0.036196330004280471 0.012133964025895567 0.051359362441841555 -0.13415996469190944 0.1401624706702351 -0.1151926471889449 0.1180529636691765 -0.11245726957841734 0.10982296361310706 0.10965541383420219 0.10795345334271655 0.10764904954197779 0.10694667522555934 -0.11272009010568716 0.10722160596708319 0.10719375387679775 0.10709187676144072
leaf_weight=1.5621231496334238 3.6029377058148375 3.7781746014952651 3.0181817486882201 3.2984366416931143 3.8081921041011801 3.0000094771385184 1.5565976575016964 2.2993587180972082 1.9942387640476216 3.8384954109787941 1.4028180018067349 1.4760812185704697 1.2739602215588082 1.3128741905093182 2.1862042248249058 2.0005720928311348 1.3806044124066827 1.2492432892322538 1.6679667830467222
leaf_count=24 26 24 23 21 27 20 10 21 18 39 18 20 19 20 36 20 22 20 27
internal_value=0 0.0532574 0.0749282 0.088805 0.100922 -0.108182 0.111984 -0.118915 0.109155 -0.113295 0.107842 0.107612 0.107329 0.107244 0.107178 -0.112547 0.107391 0.107055 0.10701
internal_weight=0 30.9657 27.1875 24.1693 20.8709 14.7414 17.0627 11.1384 15.5061 8.13843 13.5119 12.1091 10.633 9.35902 8.04614 5.83907 2.94273 5.10341 3.85417
internal_count=455 329 305 282 261 126 234 100 224 80 206 188 168 149 129 59 46 83 63
is_linear=0
shrinkage=0.1


Tree=18
num_leaves=21
num_cat=0
split_feature=27 23 10 21 21 27 2 4 20 23 13 20 1 27 9 1 25 26 17 21
split_gain=23.5041 7.10397 4.53812 3.89191 0.748682 1.68139 0.419472 0.618867 0.326911 0.011523 0.00480319 0.00224228 0.000572446 0.000499516 2.8336e-05 1.55956e-05 8.54939e-06 1.23663e-05 7.29309e-06 9.85655e-07
threshold=0.11085000000000002 710.10000000000014 0.56805000000000005 22.030000000000005 26.470000000000002 0.08221500000000001 92.290000000000006 0.090795000000000015 16.355000000000004 1032.5000000000002 32.355000000000011 13.875000000000002 19.750000000000004 0.099515000000000006 0.060745000000000007 18.895000000000003 0.086675000000000016 0.19335000000000005 0.0088485000000000005 20.320000000000004
decision_type=2 2 2 2 2 2 2 2 2 2 2 2 2 2 2 2 2 2 2 2
left_child=2 -2 4 -3 8 11 -5 -8 10 -9 13 -6 -11 15 -14 16 -1 18 19 -18
right_child=1 3 -4 6 5 -7 7 9 -10 12 -12 -13 14 -15 -16 -17 17 -19 -20 -21
leaf_value=0.10672986306734394 0.053406032799381935 0.0037835408464558804 -0.082774205334925549 -0.14297715380313805 0.10844837568594534 -0.0096225214222631708 -0.061480405269542404 -0.11976513719795175 0.16176608948421384 -0.11328787827505141 0.11346141169677892 0.11378337003955225 -0.11159700530570665 0.10877093948559467 -0.11114974112251007 0.10687227361160939 0.1063377169974032 0.10672922800283818 0.10651465132766413 0.10622266882453689
leaf_weight=1.1800238266587308 4.2568079270422485 3.6937756314873722 1.4802358150482167 3.1056163012981441 1.7959848009049886 1.8189925439655779 2.9169488921761504 2.3904442340135557 1.236178871244191 2.019232876598835 1.2147180512547482 1.4034201018512247 2.4149739518761635 1.1311424039304245 3.4259159713983536 1.1927591301500795 1.2883195132017138 1.1739701516926286 2.0618162527680397 1.7647037059068678
leaf_count=20 29 23 9 19 26 17 22 20 10 20 13 15 26 17 38 20 23 20 36 32
internal_value=0 -0.0638792 0.0852637 -0.0888837 0.0996731 0.0671438 -0.109918 -0.102121 0.113006 -0.113685 0.10753 0.110789 -0.111836 0.106795 -0.111335 0.106536 0.106483 0.106437 0.106369 0.106271
internal_weight=0 24.2237 18.7423 19.9669 17.262 5.0184 16.2731 13.1675 12.2436 10.2506 11.0075 3.1994 7.86012 9.79273 5.84089 8.66159 7.46883 6.28881 5.11484 3.05302
internal_count=455 197 258 168 249 58 145 126 191 104 181 41 84 168 64 151 131 111 91 55
is_linear=0
shrinkage=0.1


Tree=19
num_leaves=22
num_cat=0
split_feature=23 27 1 4 25 25 22 0 12 0 26 1 27 13 9 21 26 25 24 21 13
split_gain=20.8949 8.74886 4.15233 4.25421 1.4066 0.652534 0.637604 0.119493 0.087541 0.0512052 0.030678 0.00609466 0.00350473 0.000219292 4.10859e-05 2.25079e-05 8.28224e-06 2.62671e-06 2.62529e-06 1.35426e-06 9.37838e-08
threshold=953.70000000000016 0.17685000000000003 21.295000000000005 0.090515000000000026 0.32430000000000009 0.081070000000000017 127.2 14.430000000000001 3.7400000000000007 13.670000000000002 0.30700000000000005 19.075000000000003 0.10775000000000001 26.705000000000002 0.056860000000000008 25.820000000000004 0.22130000000000002 0.12175000000000001 0.14715000000000003 19.255000000000006 17.695000000000004
decision_type=2 2 2 2 2 2 2 2 2 2 2 2 2 2 2 2 2 2 2 2 2
left_child=1 2 4 -4 5 -1 -2 8 9 12 -8 -12 13 15 -13 16 17 -7 -16 -19 -21
right_child=6 -3 3 -5 -6 7 10 -9 -10 -11 11 14 -14 -15 18 -17 -18 19 -20 20 -22
leaf_value=0.042665376138873154 -0.058812316934519618 -0.13013355711693811 0.081519877768794283 -0.073378131365995206 0.029557325366087097 0.10583708970389881 -0.12456233609205325 0.13035163510324754 0.13333382541712885 0.08348515837405486 -0.11643843056438972 -0.11060776845589451 0.1120331935398268 0.10741665526904959 -0.11011844985997091 0.10626218540530533 0.106005989383125 0.10574141209859456 -0.1099486517298795 0.10562605723798733 0.10558285423697363
leaf_weight=1.4939444288611508 2.4924673438072196 2.4523683637380591 3.4933180399239054 3.6006046235561371 2.9144201911985865 1.0405792333185653 2.5954059660434705 2.8846358247101298 1.1643334999680508 1.0523955561220635 2.2131427079439163 1.9000426307320593 1.1356391906738279 1.0377157144248483 1.834149554371834 1.0945274867117403 1.1165602356195448 1.1286440491676333 1.8082986921072004 1.0083283558487894 1.0015283077955244
leaf_count=25 19 18 35 27 22 20 21 22 7 19 20 22 14 17 22 20 21 22 22 20 20
internal_value=0 0.0501648 0.0677337 0.00289956 0.0931817 0.105414 -0.104218 0.112274 0.107437 0.104301 -0.115152 -0.112002 0.106859 0.106068 -0.110231 0.105849 0.105764 0.105699 -0.110034 0.105654 0.105605
internal_weight=0 27.6195 25.1672 7.09392 18.0733 15.1588 12.8435 13.6649 10.7803 9.61592 10.351 7.75563 8.56352 7.42788 5.54249 6.39017 5.29564 4.17908 3.64245 3.1385 2.00986
internal_count=455 329 311 62 249 227 126 202 180 173 107 86 154 140 66 123 103 82 44 62 40
is_linear=0
shrinkage=0.1


Tree=20
num_leaves=22
num_cat=0
split_feature=27 13 24 10 21 27 17 20 7 21 13 20 27 7 25 25 5 17 17 7 15
split_gain=18.5765 6.18146 4.50943 4.03541 0.739699 1.53454 0.584281 0.282081 0.0721018 0.00564214 0.00247474 0.00144829 0.000271326 0.000168528 3.53403e-05 2.45379e-05 1.75129e-05 3.04053e-06 3.85841e-06 1.18221e-06 1.82209e-06
threshold=0.11085000000000002 31.125000000000004 0.13785000000000003 0.56805000000000005 26.470000000000002 0.08221500000000001 0.021380000000000003 16.355000000000004 0.059370000000000006 25.215000000000003 32.355000000000011 13.875000000000002 0.099515000000000006 0.079670000000000019 0.086675000000000016 0.23965000000000003 0.13150000000000003 0.0088485000000000005 0.010540000000000002 0.020720000000000006 0.012885000000000002
decision_type=2 2 2 2 2 2 2 2 2 2 2 2 2 2 2 2 2 2 2 2 2
left_child=3 2 -2 4 7 11 8 10 -3 -10 12 -6 14 -11 -1 17 -15 19 -19 20 -16
right_child=1 6 -4 -5 5 -7 -8 -9 9 13 -12 -13 -14 16 15 -17 -18 18 -20 -21 -22
leaf_value=0.10587449279905954 0.081312292631086164 -0.13234400182619116 -0.058966720955242469 -0.078831669215528574 0.10734808578220677 -0.010203009752902906 -0.05348227442444984 0.15976325266915359 -0.11537130839133658 -0.11033507405161956 0.11081985789477065 0.11193395675681897 0.10720325957321031 -0.10946531082403521 0.10509494875106243 0.10575141007991173 -0.10905276311272866 0.10544644734638016 0.10516884747556519 0.10505971983685376 0.10528981389029468
leaf_weight=1.3035269342362896 4.0476994737982768 1.9488939866423596 5.2819172218441963 1.428499937057494 1.5673754401504987 1.7423615530133245 1.810427464544772 1.099474512040614 2.2259369641542417 1.8187395110726354 1.0251962430775154 1.2284111231565473 0.94556407257914532 1.5756978765130041 0.96812779828906081 1.0017702206969259 2.965693436563015 0.97692570090293918 1.0270921215414999 1.0540735200047491 0.95139733329415321
leaf_count=25 27 13 39 9 26 17 16 10 21 22 13 15 17 20 21 20 39 20 22 23 20
internal_value=0 -0.0595368 0.00189401 0.0817192 0.0971206 0.0634572 -0.105961 0.111877 -0.11498 -0.111038 0.106187 0.109363 0.10561 -0.109522 0.105403 0.1053 -0.109196 0.105209 0.105304 0.105145 0.105192
internal_weight=0 21.675 9.32962 16.3198 14.8913 4.53815 12.3454 10.3531 10.535 8.58607 9.25367 2.79579 8.22848 6.36013 7.28291 5.97939 4.54139 4.97762 2.00402 2.9736 1.91953
internal_count=455 197 66 258 249 58 131 191 115 102 181 41 168 81 151 126 59 106 42 64 41
is_linear=0
shrinkage=0.1


Tree=21
num_leaves=22
num_cat=0
split_feature=23 27 1 23 25 27 25 5 29 22 11 7 1 4 21 17 17 18 17 7 15
split_gain=16.5869 7.08201 3.69184 3.88367 1.28817 0.721351 0.689528 0.0863448 0.0701661 0.0618674 0.0120378 0.00781114 0.00175584 0.00114427 0.000126486 2.67279e-05 2.45427e-05 1.35676e-05 4.00193e-06 2.2854e-06 8.49395e-07
threshold=953.70000000000016 0.17685000000000003 21.295000000000005 653.45000000000016 0.32430000000000009 0.11845000000000001 0.081070000000000017 0.12965000000000002 0.092120000000000021 108.25000000000001 0.83840000000000015 0.048040000000000006 20.075000000000003 0.10735000000000001 26.470000000000002 0.016655000000000007 0.010765000000000002 0.015455000000000002 0.0088485000000000005 0.020720000000000006 0.012885000000000002
decision_type=2 2 2 2 2 2 2 2 2 2 2 2 2 2 2 2 2 2 2 2 2
left_child=1 2 4 -4 6 -2 -1 8 9 11 -7 13 -12 14 16 17 18 -14 19 20 -8
right_child=5 -3 3 -5 -6 10 7 -9 -10 -11 12 -13 15 -15 -16 -17 -18 -19 -20 -21 -22
leaf_value=0.034490093967319314 -0.041951298626715802 -0.12554637578962344 0.08546347985391381 -0.068488213672545636 0.028006303149823039 -0.11720147806428716 0.1046202939376365 0.13589357219424106 0.082395730847937998 0.1290099697936313 -0.11188688953106662 0.11502018439749449 -0.10831720416981741 0.10836288121782829 0.10605988996056336 -0.1085914212903276 0.10526169350159967 -0.10788479257615768 0.1048356146574862 0.10451145557732558 0.10476133470712422
leaf_weight=1.3327420875430167 1.7657053768634785 2.1761435493826857 2.9737786613404742 3.6495765075087547 2.8065030500292769 2.7628898322582227 0.84326579421758496 1.1923570334911335 1.0068009383976448 1.471662864089011 1.9047167301177976 0.99462683126330365 1.4160224795341494 1.2071161940693853 0.9208826646208762 1.7379740029573438 0.88425114005804051 1.4882465600967405 1.1840946003794668 1.1957135312259195 0.86498093977570534
leaf_count=25 10 18 37 25 22 28 20 8 19 10 22 10 20 22 18 24 19 22 27 29 20
internal_value=0 0.0467243 0.0633649 0.000633591 0.0894883 -0.100552 0.102661 0.110383 0.107507 0.110149 -0.111666 0.106721 -0.10933 0.105558 0.104983 -0.108281 0.104784 -0.108096 0.104681 0.104617 0.104692
internal_weight=0 24.7045 22.5284 6.62336 15.905 11.0756 13.0985 11.7658 10.5734 9.56659 9.30985 8.09493 6.54696 7.1003 5.89319 4.64224 4.97231 2.90427 4.08805 2.90396 1.70825
internal_count=455 329 311 62 249 126 227 202 194 175 116 165 88 155 133 66 115 42 96 69 40
is_linear=0
shrinkage=0.1


Tree=22
num_leaves=23
num_cat=0
split_feature=20 24 1 23 24 9 14 13 17 13 12 27 21 7 21 1 24 11 26 25 25 17
split_gain=14.6934 5.88107 5.4517 2.23183 3.56847 2.34184 0.668193 1.60936 0.420402 0.437645 0.336037 0.0880586 0.00506801 0.00435223 0.00125468 0.000938249 0.000491406 7.10783e-05 5.45323e-05 7.59508e-06 7.68449e-06 3.64298e-06
threshold=16.540000000000003 0.17810000000000001 15.775 653.45000000000016 0.14185000000000003 0.056585000000000003 0.0056125000000000003 19.875000000000004 0.010165000000000002 48.57500000000001 2.1160000000000005 0.13765000000000002 25.215000000000003 0.037335000000000007 22.995000000000001 19.075000000000003 0.13785000000000003 1.5615000000000003 0.38590000000000008 0.10270000000000001 0.19895000000000002 0.014750000000000001
decision_type=2 2 2 2 2 2 2 2 2 2 2 2 2 2 2 2 2 2 2 2 2 2
left_child=1 3 -2 6 5 -5 7 14 -4 -10 -7 13 -11 15 -1 17 -17 19 -14 -8 -21 -20
right_child=2 -3 8 4 -6 10 11 -9 9 12 -12 -13 18 -15 -16 16 -18 -19 21 20 -22 -23
leaf_value=0.10445335583342835 0.076414816227460769 -0.12511674768362674 -0.14131647118484592 -0.04322818580118739 -0.094597468002890206 0.073584596050481885 0.10466697077009968 -0.053975590417864219 -0.055455242956285733 -0.11373622721281507 0.13225148248532725 0.13638764352482763 -0.1081226781217986 0.11164681193614706 0.10956533160834735 0.10605899529517429 0.10901589837434017 0.10544209319137093 -0.10724434821098774 0.10413949836861092 0.1045350715170279 -0.10746167218317958
leaf_weight=0.96764417365194011 1.8690210580825795 1.6835614889860142 2.8388497568666926 1.4150169733911742 1.824625141918659 1.7344085611402991 0.84353209659457107 0.91803102195262898 1.9617385603487472 1.9178840294480322 2.2338035441935062 1.1623529642820356 1.3667474612593649 1.5075819343328474 0.95297952741384506 1.4530698843300345 0.91655776649713505 0.88310403004288662 1.3844900429248812 1.1440627947449686 0.86043196916580189 1.7416476309299467
leaf_count=24 14 11 23 19 17 27 20 12 24 20 17 7 20 20 17 29 15 19 22 30 21 27
internal_value=0 0.0539464 -0.0817019 0.069967 0.0262597 0.0672238 0.0971034 0.054933 -0.108061 -0.0967855 0.10661 0.110752 -0.109433 0.106836 0.10699 0.105647 0.107203 0.104658 -0.107596 0.104415 0.104309 -0.107365
internal_weight=0 20.5008 13.0804 18.8172 7.20785 5.38323 11.6093 2.83865 11.2114 8.37251 3.96821 8.77069 6.41077 7.60834 1.92062 6.10076 2.36963 3.73113 4.49289 2.84803 2.00449 3.12614
internal_count=455 305 150 294 80 63 214 53 136 113 44 161 89 154 41 134 44 90 69 71 51 49
is_linear=0
shrinkage=0.1


Tree=23
num_leaves=22
num_cat=0
split_feature=27 23 21 10 21 27 2 22 23 27 13 0 1 7 25 25 20 26 25 19 9
split_gain=13.2633 5.0842 4.23675 3.53183 0.754434 1.37655 0.725922 1.09452 0.278855 0.00839229 0.00142415 0.00138726 0.00055305 0.000280878 3.69891e-05 1.70944e-05 7.42965e-06 6.55897e-06 3.70395e-06 1.85379e-06 5.14192e-07
threshold=0.11085000000000002 727.10000000000002 20.845000000000002 0.56805000000000005 26.470000000000002 0.08221500000000001 92.290000000000006 113.75000000000001 831.85000000000014 0.15555000000000002 32.850000000000009 12.840000000000002 19.750000000000004 0.036620000000000007 0.086675000000000016 0.22480000000000003 14.785000000000002 0.39115000000000005 0.42445000000000005 0.0028045000000000006 0.061045000000000009
decision_type=2 2 2 2 2 2 2 2 2 2 2 2 2 2 2 2 2 2 2 2 2
left_child=3 -2 -3 4 8 11 -4 -8 10 -9 13 -6 -11 14 -1 16 19 -14 -19 20 -16
right_child=1 2 6 -5 5 -7 7 9 -10 12 -12 -13 17 -15 15 -17 -18 18 -20 -21 -22
leaf_value=0.10465083840659427 0.045909819998897407 0.037943790384129872 -0.15541359165527618 -0.077007292731475829 0.10545267091203847 -0.013932591040609205 -0.014284311257364443 -0.11502790319493768 0.16655779206268645 -0.10888453459243706 0.10888265714023374 0.11045943992500951 -0.10694358285771491 0.10617717576324633 0.10379929937921367 0.10434537149662303 0.10417319304061134 -0.10657923064211486 -0.1068021025815096 0.10390879317441702 0.10368472742772411
leaf_weight=1.0529938526451603 3.9373730346560505 2.4212983027100554 2.4766006655991069 1.3457472026348103 1.249105170369148 1.591463830322027 1.4382721036672572 1.8649992272257803 0.81203240901231755 1.681171618402004 0.77272603288292874 0.99361740052700032 1.2093423828482626 0.74333492666482914 0.91463319212198324 1.0879346430301664 0.76295531168580044 1.8512765206396582 1.248620707541704 1.3676958121359346 0.68514339253306389
leaf_count=25 32 18 18 9 27 17 10 22 6 24 12 14 20 16 26 28 20 32 21 38 20
internal_value=0 -0.0546297 -0.0825238 0.0766308 0.0938124 0.0571967 -0.107306 -0.0944856 0.110935 -0.10917 0.10482 0.107671 -0.107346 0.104346 0.104114 0.103997 0.103895 -0.106746 -0.106669 0.103823 0.10375
internal_weight=0 18.129 14.1916 13.3794 12.0336 3.83419 11.7703 9.29368 8.19945 7.85541 7.38742 2.24272 5.99041 6.61469 5.87136 4.81836 3.73043 4.30924 3.0999 2.96747 1.59978
internal_count=455 197 165 258 249 58 147 129 191 119 185 41 97 173 157 132 104 73 53 84 46
is_linear=0
shrinkage=0.1


Tree=24
num_leaves=22
num_cat=0
split_feature=27 13 14 13 21 24 25 2 22 1 18 7 21 4 25 25 14 17 3 10 15
split_gain=11.7711 3.73611 3.13513 2.96116 1.11341 1.05751 0.295014 0.165736 0.0984478 0.0084957 0.00205741 0.00124545 0.000237308 0.000146327 2.44177e-05 3.37434e-05 9.52727e-06 8.07761e-06 7.53576e-06 1.60632e-06 3.68567e-07
threshold=0.13495000000000004 35.75500000000001 0.0033290000000000008 22.335000000000004 33.160000000000004 0.13155000000000003 0.29020000000000007 92.290000000000006 111.30000000000001 22.250000000000004 0.022925000000000004 0.044930000000000005 27.910000000000004 0.10210000000000001 0.084340000000000012 0.23965000000000003 0.0062440000000000004 0.0088485000000000005 421.70000000000005 0.25190000000000007 0.013850000000000003
decision_type=2 2 2 2 2 2 2 2 2 2 2 2 2 2 2 2 2 2 2 2 2
left_child=1 2 -1 -2 8 -5 -7 -8 9 11 13 12 14 -9 -4 17 -15 19 -19 20 -16
right_child=3 -3 4 5 -6 6 7 10 -10 -11 -12 -13 -14 16 15 -17 -18 18 -20 -21 -22
leaf_value=-0.089259029046247995 0.027123518610823863 -0.032521527191759318 0.10426893770911012 -0.035119743533235312 0.017779011247113972 -0.069284712690950809 -0.14199231867073581 -0.10750415561333025 0.13719971009376367 0.11322842936412247 -0.11131999843383274 0.10828203211951054 0.10543326538069211 -0.10591117991122512 0.10335514600902296 0.10422134949050671 -0.10633161224615173 0.10353289230736873 0.1039399582760487 0.10357230111031256 0.10345554681453512
leaf_weight=0.97589310444892063 2.5873133614659301 3.5814617052674285 0.9297669641673546 2.4977001547813407 1.5352879650890816 1.4961519278585891 2.0613692365586758 1.2003301158547404 1.1097656786441792 1.2793346568942068 1.2882515043020246 0.76418292336165894 1.0369418095797298 1.0513627752661707 0.8473711181432011 1.0406971033662555 1.1059576272964475 0.88549301400780656 0.93495574593544006 0.8262517787516116 0.64313659444451332
leaf_count=10 20 30 24 29 18 21 15 20 7 16 17 12 23 20 27 28 20 27 26 25 20
internal_value=0 0.057769 0.0830145 -0.0688793 0.097222 -0.0920909 -0.109437 -0.118393 0.109066 0.105668 -0.107923 0.104445 0.104035 -0.106619 0.103797 0.103712 -0.106127 0.103584 0.103742 0.10346 0.103398
internal_weight=0 16.3905 12.8091 13.2884 11.8332 10.7011 8.20342 6.70727 10.2979 9.18813 4.6459 7.9088 7.14461 3.35765 6.10767 5.17791 2.15732 4.13721 1.82045 2.31676 1.49051
internal_count=455 293 263 162 253 142 113 92 235 228 77 212 200 60 177 153 40 125 53 72 47
is_linear=0
shrinkage=0.1


Tree=25
num_leaves=24
num_cat=0
split_feature=26 20 21 12 27 21 3 23 7 23 5 27 27 1 25 1 21 25 2 24 10 10 25
split_gain=10.8523 5.98173 3.75869 3.47784 2.26371 1.67849 0.573609 0.903561 0.206129 0.248246 0.0312759 0.0215694 0.00406321 0.00223011 0.000515732 0.000157511 0.000133315 4.44508e-05 1.45508e-05 6.31029e-06 5.10969e-06 2.6822e-06 3.64516e-07
threshold=0.20795000000000002 15.870000000000003 31.875000000000004 4.0670000000000011 0.15780000000000002 20.845000000000002 593.95000000000016 865.65000000000009 0.041060000000000006 743.45000000000016 0.14810000000000004 0.14775000000000002 0.11020000000000001 23.160000000000004 0.27155000000000001 19.750000000000004 26.145000000000003 0.086675000000000016 82.765000000000001 0.13885000000000003 0.55885000000000007 0.34260000000000007 0.16270000000000004
decision_type=2 2 2 2 2 2 2 2 2 2 2 2 2 2 2 2 2 2 2 2 2 2 2
left_child=3 2 4 8 10 -3 -7 -8 9 13 12 -9 -2 16 -13 -16 17 -1 21 -17 -21 22 -19
right_child=1 5 -4 -5 -6 6 7 11 -10 -11 -12 14 -14 -15 15 19 -18 18 -20 20 -22 -23 -24
leaf_value=0.10402511851006065 0.1036047823444629 0.0025887723186741977 -0.10414864635049377 -0.09465202083855162 -0.028353221042853784 -0.16741713682437512 -0.020324897487600038 -0.11976518546996889 0.13509008773907424 0.042020855231894305 0.1280080097183032 -0.10811969386596376 0.11161724951127985 0.10876075874444507 -0.10685009598192029 -0.10568498308313619 0.10472584816399629 0.10309151867394468 0.10360499805243917 -0.10553878812356728 -0.10523513361568222 0.10329311688687864 0.10299506554238896
leaf_weight=0.98293106257915486 1.1794377695769105 1.7289355285465706 1.6078487038612364 0.9557814225554474 1.6078167930245397 1.2550188824534405 1.3613312412053327 1.5224097222089765 1.9300043582916258 0.7080395035445689 1.1119280345737932 1.2754720561206339 1.36581982858479 1.0472243539988992 1.1297285407781599 1.0143586769700053 1.0032473523169754 0.92967513203620977 0.85266319476068009 1.0862465500831606 1.1313084140419958 0.63872343115508545 0.67724917456507683
leaf_count=27 36 15 12 6 11 9 13 15 18 14 8 21 18 17 20 20 26 32 26 22 24 21 24
internal_value=0 -0.0441411 0.029673 0.0864871 0.07054 -0.0882369 -0.1043 -0.0950037 0.106229 0.0980848 0.114017 -0.109203 0.107904 0.104559 -0.106351 -0.105834 0.103693 0.103439 0.103253 -0.105478 -0.105384 0.10312 0.103051
internal_weight=0 18.3777 6.87285 9.72554 5.265 11.5048 9.77587 8.52086 8.76976 6.83975 3.65719 7.15952 2.54526 6.13171 5.63711 4.36164 5.08449 4.08124 3.09831 3.23191 2.21755 2.24565 1.60692
internal_count=455 244 85 211 73 159 144 135 205 187 62 122 54 173 107 86 156 130 103 66 46 77 56
is_linear=0
shrinkage=0.1


Tree=26
num_leaves=23
num_cat=0
split_feature=23 27 1 4 26 13 24 5 27 27 23 2 21 27 24 19 15 29 5 1 27 19
split_gain=9.69924 4.47207 2.8883 2.79441 1.08457 0.943739 2.23557 0.936331 0.067208 0.0202627 0.0155894 0.00662948 0.00341231 0.000655265 3.49867e-05 1.61447e-05 7.55481e-06 5.30386e-06 3.03924e-06 3.18581e-06 1.92471e-06 5.00183e-07
threshold=953.70000000000016 0.17685000000000003 21.295000000000005 0.090515000000000026 0.24080000000000004 22.335000000000004 0.14065000000000003 0.062450000000000006 0.14460000000000003 0.11370000000000001 1086.0000000000002 95.845000000000013 25.215000000000003 0.10695 0.13415000000000002 0.0016990000000000002 0.025385000000000001 0.082885000000000014 0.066540000000000016 16.405000000000005 0.20190000000000002 0.0025840000000000004
decision_type=2 2 2 2 2 2 2 2 2 2 2 2 2 2 2 2 2 2 2 2 2 2
left_child=1 2 5 -4 -2 8 7 -7 11 -9 -6 13 -12 15 -14 -1 18 -16 19 -17 -19 -20
right_child=4 -3 3 -5 10 6 -8 9 -10 -11 12 -13 14 -15 17 16 -18 20 21 -21 -22 -23
leaf_value=0.10357616265148742 -0.005983906173038513 -0.11902375160518115 0.071096221727715556 -0.072498303047260862 -0.11881821513538596 -0.00014426033224187369 -0.056044470092358328 0.10938912587629435 0.13174451150604763 0.12560949481879308 -0.11067710310663431 0.11436962609034523 -0.10555748065543664 0.10642787479223043 -0.10505607737349938 0.10288216275433976 0.10332499979935801 -0.1046555370606278 0.10275724190218512 0.10320583043918008 -0.10486394069457997 0.10288969021644677
leaf_weight=0.63181206211448637 1.2068250961601723 1.6127671189606179 2.5601351838558903 2.8795572705566883 1.3342317938804624 0.88325536064803589 1.3969239965081213 1.7781067378818991 1.1655953079462049 1.3586053624749181 1.5236851572990415 0.66692088358104218 0.98303858935833011 0.71544538997113694 0.91258541494607959 0.59581981413066454 0.63893225230276574 0.88952102512121178 0.59897993505001046 0.62112025544047356 0.88311940059065819 0.54415250942111015
leaf_count=20 10 18 35 27 14 22 21 39 7 10 21 8 20 15 20 22 21 21 23 21 20 20
internal_value=0 0.0401335 0.0552012 -0.00491702 -0.0930725 0.0834035 0.0529348 0.0908047 0.110115 0.116415 -0.109177 0.105086 -0.106699 0.103662 -0.105047 0.103117 0.10302 -0.10486 0.102937 0.103047 -0.104759 0.10282
internal_weight=0 18.6481 17.0354 5.43969 7.73301 11.5957 5.41689 4.01997 6.17878 3.13671 6.52618 5.01318 5.19195 4.34626 3.66826 3.63082 2.999 2.68523 2.36007 1.21694 1.77264 1.14313
internal_count=455 329 311 62 126 249 92 71 157 49 116 150 102 142 81 127 107 61 86 43 41 43
is_linear=0
shrinkage=0.1


Tree=27
num_leaves=24
num_cat=0
split_feature=26 20 24 12 1 21 15 27 2 21 22 1 7 27 7 1 7 24 13 29 25 25 22
split_gain=8.76372 4.82325 3.27274 3.10994 2.13428 1.41515 0.493803 0.476556 0.269919 0.171398 0.169903 0.0230184 0.0142198 0.0130498 0.00949508 0.000692494 0.000122028 5.1122e-05 4.40575e-06 2.58528e-06 2.23721e-06 8.5045e-07 6.16271e-07
threshold=0.20795000000000002 15.870000000000003 0.13785000000000003 4.0670000000000011 19.995000000000005 20.845000000000002 0.032790000000000007 0.17755000000000001 93.250000000000014 31.460000000000004 110.05000000000001 19.995000000000005 0.043620000000000006 0.15380000000000002 0.048040000000000006 21.295000000000005 0.032635000000000004 0.10645 19.475000000000005 0.074280000000000013 0.3544500000000001 0.12010000000000001 87.960000000000008
decision_type=2 2 2 2 2 2 2 2 2 2 2 2 2 2 2 2 2 2 2 2 2 2 2
left_child=3 2 12 9 -4 -3 8 -8 -7 10 14 -10 -2 -13 15 16 17 -1 21 -20 -15 -19 -23
right_child=1 5 4 -5 -6 6 7 -9 11 -11 -12 13 -14 20 -16 -17 -18 18 19 -21 -22 22 -24
leaf_value=0.10356708698324638 0.10778275399193404 0.0011414006921902061 0.035045052379410538 -0.086841154075740445 -0.11809853677626758 -0.15539397820642087 -0.017115756583832086 -0.10489359556146521 -0.095236416120919709 0.070086802768181231 0.15694675695857005 -0.11787113771529634 0.12291747378420291 -0.10467274235167584 0.11662867762427614 0.1063541200789334 0.10450979724347993 0.1026891677270325 0.10299484917228406 0.10270173346194965 -0.10444318965353577 0.10247068027085551 0.10261970740057594
leaf_weight=0.86666660942137452 1.171896245330575 1.5999234169721592 2.0626006294041876 0.95934791117906559 1.6285479404032228 1.407069344073532 1.156802296638489 1.3291745223104952 1.5242049936205146 1.233385184779763 0.70940728485584248 1.2997008487582209 1.320075776427984 0.84698542952537514 0.62841383740305889 0.76980534754693497 0.53410236164927472 0.53234229609370265 0.55432741716504075 0.6581913661211729 0.85127583891153336 0.63486181385815121 0.49294167011976242
leaf_count=27 28 15 28 6 16 12 16 31 30 20 4 14 13 20 7 17 16 21 20 26 21 27 20
internal_value=0 -0.0421924 0.0272557 0.0828348 -0.0325224 -0.0850681 -0.101458 -0.0640478 -0.117144 0.104212 0.110808 -0.105242 0.1158 -0.110329 0.105038 0.103593 0.103096 0.102894 0.102691 0.102836 -0.104558 0.102585 0.102536
internal_weight=0 16.1983 6.18312 8.57379 3.69115 10.0151 8.41521 2.48598 5.92924 7.61445 6.38106 4.52217 2.49197 2.99796 5.67165 5.04324 4.27343 3.73933 2.87266 1.21252 1.69826 1.66015 1.1278
internal_count=455 244 85 211 44 159 144 47 97 205 185 85 41 55 181 174 157 141 114 46 41 68 47
is_linear=0
shrinkage=0.1


Tree=28
num_leaves=22
num_cat=0
split_feature=22 21 4 23 17 1 25 9 22 7 12 27 1 20 10 22 24 25 28 17 18
split_gain=7.90597 3.36188 4.02376 2.14629 1.40923 1.16515 0.860542 0.812387 0.469931 0.0275278 0.0248407 0.0135722 0.00291118 0.00235501 0.00165452 1.41197e-05 1.24793e-05 1.14482e-05 2.39718e-06 9.89455e-07 1.38746e-07
threshold=117.80000000000003 23.350000000000005 0.090335000000000013 553.30000000000007 0.014025000000000001 21.575000000000003 0.32430000000000009 0.057440000000000005 127.2 0.053855000000000007 2.6115000000000008 0.14655000000000004 18.785000000000004 16.540000000000003 0.38585000000000008 97.180000000000021 0.13415000000000002 0.09494000000000001 0.32190000000000002 0.0088485000000000005 0.018410000000000003
decision_type=2 2 2 2 2 2 2 2 2 2 2 2 2 2 2 2 2 2 2 2 2
left_child=1 6 7 -4 5 -5 9 -3 -2 13 -9 -10 -13 14 15 17 -14 -1 -18 20 -19
right_child=8 2 3 4 -6 -7 -8 10 11 -11 -12 12 16 -15 -16 -17 18 19 -20 -21 -22
leaf_value=0.10281863674362797 -0.034538361990935629 0.01403511433319473 0.045760400518479939 0.024056500757558611 -0.15451445460886803 -0.097390127264896181 0.019439819690505393 0.10698405670313425 -0.11838960757242922 0.12040915729203322 0.12702265794186593 -0.1099021277974308 -0.10438619137255999 0.11048886319322451 0.10882489532433935 0.10304516245778231 -0.10399791686862231 0.10221470754558465 -0.10376888806178193 0.10240542909995709 0.10229155250621121
leaf_weight=0.62731737270952059 1.0323555134236801 1.1534462533891185 1.8560163918882606 1.4649289436638357 1.6867198534309862 1.7145558297634123 1.3391777463257311 1.5437940116971733 1.0897511281073091 1.5237668976187704 1.0322821028530595 1.2170687615871427 0.79722294956445727 0.5659530647099017 0.49626924097537983 0.49091012030839909 1.3281941488385203 0.50849164649844147 0.69673898443579663 0.72626082599163055 0.4367766622453928
leaf_count=24 17 20 38 27 15 16 14 38 12 14 11 19 20 7 13 18 36 24 20 32 20
internal_value=0 0.0359535 0.000482505 -0.0457334 -0.0806301 -0.0414343 0.091164 0.0837837 -0.0960958 0.109032 0.115014 -0.108486 -0.105814 0.104531 0.103505 0.102558 -0.104051 0.102454 -0.103919 0.102318 0.10225
internal_weight=0 17.1667 10.4517 6.72222 4.8662 3.17948 6.71492 3.72952 6.16133 5.37575 2.57608 5.12898 4.03922 3.85198 3.28603 2.78976 2.82216 2.29885 2.02493 1.67153 0.945268
internal_count=455 331 165 96 58 43 166 69 124 152 49 107 95 138 131 118 76 100 56 76 44
is_linear=0
shrinkage=0.1


Tree=29
num_leaves=22
num_cat=0
split_feature=7 23 15 16 23 15 24 27 26 22 18 1 21 21 23 13 25 24 22 12 28
split_gain=7.13369 2.70044 2.60849 4.59714 1.02708 0.654438 0.144675 0.0782592 0.0744444 0.020373 0.00510098 0.00394692 0.0039261 0.000315767 0.00024382 3.60667e-05 9.66853e-06 8.77167e-06 4.97351e-06 2.44826e-06 1.16269e-06
threshold=0.048405000000000011 787.95000000000016 0.012025000000000003 0.011910000000000002 901.75000000000011 0.018270000000000005 0.15465000000000004 0.14245000000000002 0.081135000000000013 108.85000000000001 0.030300000000000004 22.250000000000004 24.075000000000003 26.570000000000004 1129.5000000000002 23.540000000000003 0.084340000000000012 0.13460000000000003 93.535000000000011 1.4730000000000003 0.32795000000000002
decision_type=2 2 2 2 2 2 2 2 2 2 2 2 2 2 2 2 2 2 2 2 2
left_child=2 -2 3 8 6 -3 9 -7 16 10 11 13 -9 15 -14 18 -1 -16 19 -4 -19
right_child=1 5 4 -5 -6 7 -8 12 -10 -11 -12 -13 14 -15 17 -17 -18 20 -20 -21 -22
leaf_value=0.10288385444129802 0.0098237415562711337 -0.032023498324368668 0.10237756403415883 -0.10571034812957705 -0.0038198673852778415 -0.13805754607398052 0.059551742199122494 -0.11074303024464334 0.14901611076817148 0.12431927119324167 0.11368239399655061 0.10958055387048893 -0.10560024713293883 0.10494396266424744 -0.10394577628554501 0.10325072139776247 0.10227588924035397 -0.1035937872054503 0.10257708463920666 0.1020904549854722 -0.1034231698428557
leaf_weight=0.63303207606077394 3.7233043387532216 1.2849743664264677 0.50683877058327265 2.2014589793980122 1.0253046266734598 0.9126601219177245 0.66626760736107815 1.2529857102781532 0.50941517017781723 0.73148974776267994 0.83118155784904946 1.3740134667605159 0.87532502971589599 0.71798961050808419 0.72239395603537593 0.5460305418819188 0.44578467682003975 1.0695029534399507 0.52559864707291115 0.71739337965846062 0.63747823424637307
leaf_count=24 36 23 23 33 9 8 16 17 11 6 17 21 20 20 20 20 21 32 22 36 20
internal_value=0 -0.0585554 0.0556728 -0.0121604 0.089311 -0.0962436 0.103742 -0.111329 0.11751 0.10869 0.106499 0.105139 -0.105977 0.103114 -0.104169 0.102541 0.102633 -0.103654 0.10232 0.102209 -0.10353
internal_weight=0 10.4786 11.4318 3.78969 7.64211 6.75532 6.6168 5.47035 1.58823 5.95054 5.21905 4.38786 4.55769 3.01385 3.3047 2.29586 1.07882 2.42938 1.74983 1.22423 1.70698
internal_count=455 176 279 89 190 140 181 117 56 165 159 142 109 121 92 101 45 72 81 59 52
is_linear=0
shrinkage=0.1


end of trees

feature_importances:
Column_21=60
Column_27=55
Column_1=47
Column_25=38
Column_13=37
Column_7=36
Column_22=32
Column_23=26
Column_26=25
Column_20=22
Column_11=19
Column_17=19
Column_15=16
Column_24=15
Column_0=13
Column_28=13
Column_18=11
Column_4=10
Column_5=10
Column_10=10
Column_12=10
Column_6=9
Column_2=8
Column_9=8
Column_19=7
Column_29=7
Column_14=5
Column_8=4
Column_16=4
Column_3=2

parameters:
[boosting: gbdt]
[objective: binary]
[metric: binary_logloss]
[tree_learner: serial]
[device_type: cpu]
[linear_tree: 0]
[data: ]
[valid: ]
[num_iterations: 30]
[learning_rate: 0.1]
[num_leaves: 31]
[num_threads: 0]
[deterministic: 0]
[force_col_wise: 0]
[force_row_wise: 0]
[histogram_pool_size: -1]
[max_depth: -1]
[min_data_in_leaf: 20]
[min_sum_hessian_in_leaf: 0.001]
[bagging_fraction: 1]
[pos_bagging_fraction: 1]
[neg_bagging_fraction: 1]
[bagging_freq: 0]
[bagging_seed: 3]
[feature_fraction: 1]
[feature_fraction_bynode: 1]
[feature_fraction_seed: 2]
[extra_trees: 0]
[extra_seed: 6]
[early_stopping_round: 0]
[first_metric_only: 0]
[max_delta_step: 0]
[lambda_l1: 0]
[lambda_l2: 0]
[linear_lambda: 0]
[min_gain_to_split: 0]
[drop_rate: 0.1]
[max_drop: 50]
[skip_drop: 0.5]
[xgboost_dart_mode: 0]
[uniform_drop: 0]
[drop_seed: 4]
[top_rate: 0.2]
[other_rate: 0.1]
[min_data_per_group: 100]
[max_cat_threshold: 32]
[cat_l2: 10]
[cat_smooth: 10]
[max_cat_to_onehot: 4]
[top_k: 20]
[monotone_constraints: ]
[monotone_constraints_method: basic]
[monotone_penalty: 0]
[feature_contri: ]
[forcedsplits_filename: ]
[refit_decay_rate: 0.9]
[cegb_tradeoff: 1]
[cegb_penalty_split: 0]
[cegb_penalty_feature_lazy: ]
[cegb_penalty_feature_coupled: ]
[path_smooth: 0]
[interaction_constraints: ]
[verbosity: 1]
[saved_feature_importance_type: 0]
[max_bin: 255]
[max_bin_by_feature: ]
[min_data_in_bin: 3]
[bin_construct_sample_cnt: 200000]
[data_random_seed: 1]
[is_enable_sparse: 1]
[enable_bundle: 1]
[use_missing: 1]
[zero_as_missing: 0]
[feature_pre_filter: 1]
[pre_partition: 0]
[two_round: 0]
[header: 0]
[label_column: ]
[weight_column: ]
[group_column: ]
[ignore_column: ]
[categorical_feature: ]
[forcedbins_filename: ]
[objective_seed: 5]
[num_class: 1]
[is_unbalance: 0]
[scale_pos_weight: 1]
[sigmoid: 1]
[boost_from_average: 1]
[reg_sqrt: 0]
[alpha: 0.9]
[fair_c: 1]
[poisson_max_delta_step: 0.7]
[tweedie_variance_power: 1.5]
[lambdarank_truncation_level: 30]
[lambdarank_norm: 1]
[label_gain: ]
[eval_at: ]
[multi_error_top_k: 1]
[auc_mu_weights: ]
[num_machines: 1]
[local_listen_port: 12400]
[time_out: 120]
[machine_list_filename: ]
[machines: ]
[gpu_platform_id: -1]
[gpu_device_id: -1]
[gpu_use_dp: 0]
[num_gpu: 1]

end of parameters

pandas_categorical:null
